{"levels":[{"inputs":[0.6467430374167874,0.5645037384501743,0.40894557486677463,0.03488403009520591,0,0,0,0,0,0],"outputs":[1,1,1,0,1,0],"biases":[0.10352986557015263,-0.06680936966435769,-0.12173129083668596,0.2131208160612289,-0.08734557319080834,0.12356450631355206],"weights":[[0.27314385868395596,-0.013571651267842036,0.03494263671013362,-0.16730707809931714,0.0339643960602875,0.10007106262664522],[-0.11943932129701681,0.03013918705227334,-0.11778991357667923,0.06533402148066735,0.06644030254770049,-0.0002640694821251265],[0.08362333772826994,-0.11954769900923659,0.0074426230633403475,0.1115478306233365,-0.27343505565938886,0.1254825600292624],[0.0674909947928088,-0.22131977304826783,-0.018820099562597874,0.19622119669674284,-0.01332270692880647,0.08252144965033913],[0.020266877502985985,-0.19639515931895432,-0.042206629457984354,0.06042579743341735,-0.17205675812058124,-0.0379373457078098],[-0.05709202263377909,0.17796576164715935,-0.09586287139298144,-0.22533315070264104,-0.15414991636409636,0.08496873146184752],[0.2385520776048991,0.33921212243489074,-0.10417441760688627,0.02408937246055422,-0.2318162845737516,-0.05310008743559267],[0.03528688516503992,-0.061252549769868755,-0.07696527879556002,-0.06740228418652469,-0.03526147183768408,-0.018527389655465507],[0.13247902431124128,0.04059016365881864,0.1494720565794712,-0.009099534757588783,-0.0418859059240118,-0.1014154791487412],[-0.17454558689126073,0.07200966027023814,0.04311311374787853,0.36282360001822944,-0.09999599573367936,-0.07426485823069295]]},{"inputs":[1,1,1,0,1,0],"outputs":[1,0,0,0],"biases":[-0.2779232320617735,0.14481003410566748,-0.06279672785012778,0.1807644508730344],"weights":[[0.12778042964072106,-0.16138610014984517,-0.18908133128464708,-0.0039636109500840785],[0.11054136714368518,0.2191215033604374,-0.20580172113847492,0.03140025815540278],[0.10440667657702894,0.05903625525819147,0.02764086841922874,-0.25618648463785093],[-0.07593318592354008,-0.2205255409190222,0.11464673520682261,0.10631772444442619],[0.06268498273146736,-0.005851506687320687,0.26930346963316176,0.043798015052693214],[-0.15097193653012167,-0.24085951037253112,0.1591514620155649,-0.2691493314883508]]}]}